-0.004208 
-0.006193 
0.003482 
0.002268 
0.004763 
0.000828 
0.006041 
0.003961 
0.000825 
0.002648 
-0.004281 
0.002325 
-0.006134 
0.001624 
0.001340 
0.002042 
-0.000917 
-0.000103 
0.000492 
-0.001320 
0.002072 
-0.001313 
0.003046 
-0.002392 
-0.003357 
0.003104 
-0.002684 
-0.005010 
-0.003063 
-0.004628 
-0.003238 
0.000898 
0.000955 
-0.246080 
-0.005278 
0.002958 
-0.003724 
0.004632 
0.000675 
-0.002278 
0.002413 
-0.002259 
-0.006119 
-0.000036 
-0.002680 
-0.004022 
-0.004509 
-0.001164 
0.006135 
-0.001170 
-0.004275 
0.004164 
-0.001373 
-0.005208 
0.000031 
0.001021 
0.006208 
-0.005240 
0.005279 
-0.002825 
-0.006060 
0.002497 
-0.004734 
-0.005027 
-0.004448 
0.006116 
0.000253 
-0.073616 
-0.002706 
-0.002896 
0.000741 
-0.000792 
-0.000070 
-0.003539 
-0.003210 
0.000842 
0.002712 
0.000436 
0.003002 
-0.000650 
0.004286 
0.001705 
0.001862 
-0.001405 
0.003328 
-0.003182 
0.001878 
0.003680 
-0.002701 
-0.002278 
-0.005326 
-0.001851 
-0.006177 
-0.002957 
-0.004216 
0.001477 
0.004721 
0.006066 
-0.002074 
-0.002829 
-0.001875 
0.063631 
0.003529 
0.005512 
0.001424 
0.000513 
-0.003241 
-0.003552 
0.005594 
0.000610 
-0.002422 
-0.002341 
0.002605 
0.002801 
0.004694 
-0.003070 
-0.003183 
0.003245 
0.004266 
-0.003047 
0.000991 
-0.004408 
0.001976 
0.001648 
-0.005260 
0.000621 
-0.000841 
-0.005670 
-0.005903 
0.000779 
-0.001393 
-0.000321 
-0.005918 
-0.003437 
-0.004784 
-0.259558 
-0.000852 
-0.004114 
0.000975 
0.000305 
-0.000728 
-0.001514 
-0.004225 
0.002935 
-0.004426 
-0.001296 
0.005694 
0.005879 
0.003240 
0.005072 
0.004027 
0.005785 
-0.005811 
0.006056 
-0.000919 
0.005482 
-0.001791 
-0.000515 
-0.000758 
-0.006084 
-0.004279 
0.004473 
0.003798 
0.002217 
-0.004467 
0.002544 
0.006040 
0.002345 
-0.005300 
0.039113 
-0.000783 
0.002312 
-0.000906 
0.002598 
0.000684 
0.001461 
-0.005573 
-0.005142 
-0.000588 
0.000596 
0.001949 
0.004813 
-0.005377 
0.003220 
0.002909 
0.002068 
-0.006033 
0.001014 
-0.004504 
-0.001043 
-0.004642 
-0.004171 
0.005997 
0.003426 
-0.004937 
0.001333 
-0.005581 
0.002021 
-0.002741 
0.003057 
0.002602 
-0.001871 
0.003916 
-0.490335 
-0.001660 
-0.000648 
-0.004532 
-0.006228 
0.001526 
0.001343 
-0.003052 
-0.002734 
-0.004187 
0.006100 
0.001973 
0.000702 
0.001697 
0.001723 
-0.002557 
-0.004197 
0.004423 
-0.001602 
0.002924 
0.001995 
-0.006158 
0.005456 
0.005306 
0.002045 
0.003643 
-0.003116 
0.001487 
0.002056 
0.001513 
-0.001585 
0.004640 
0.005662 
0.003565 
-0.269342 
-0.003853 
-0.004998 
-0.005293 
-0.000381 
-0.002264 
-0.003098 
-0.004563 
-0.003174 
-0.000174 
0.003252 
-0.003492 
0.002762 
0.000429 
-0.002230 
-0.002783 
0.005590 
-0.004920 
-0.002424 
-0.004750 
-0.002574 
-0.001082 
-0.002277 
0.004488 
-0.001670 
0.003945 
-0.002593 
0.003015 
0.000375 
0.000167 
-0.001426 
0.003609 
0.000597 
-0.003081 
0.054335 
-0.004700 
-0.004293 
-0.005879 
0.004465 
0.004359 
0.001998 
0.002626 
0.002483 
0.003059 
-0.001815 
-0.000573 
0.004976 
0.003059 
-0.004653 
-0.003843 
0.000345 
-0.004653 
-0.002392 
-0.002186 
0.005222 
0.004475 
-0.005064 
0.005143 
0.003424 
0.001160 
0.000186 
-0.000765 
-0.003616 
0.002809 
0.000805 
-0.000570 
0.004191 
-0.002030 
0.335936 
0.006114 
-0.001715 
0.002620 
-0.000464 
0.004821 
-0.000411 
-0.000694 
-0.005479 
-0.002110 
0.004867 
0.000916 
0.003426 
-0.002953 
-0.001424 
-0.001366 
-0.002653 
0.001586 
0.005745 
-0.001512 
0.004388 
-0.000614 
-0.002272 
0.005498 
-0.001427 
0.004580 
-0.003773 
-0.000575 
-0.005416 
0.005453 
0.002309 
0.004486 
0.002735 
-0.003170 
-0.145950 
0.029883 
-0.000458 
-0.023242 
0.021273 
-0.018914 
-0.010522 
-0.002516 
-0.019965 
0.000419 
0.000270 
0.203743 
0.022973 
-0.015031 
-0.009226 
-0.026828 
-0.002262 
-0.003601 
0.007970 
0.002563 
-0.020841 
-0.013716 
0.348896 
0.031425 
-0.011213 
0.015828 
0.028131 
-0.025511 
-0.009135 
-0.025656 
0.028490 
-0.023714 
0.026126 
0.458233 
0.011638 
-0.024689 
0.026073 
-0.026678 
-0.013653 
-0.023259 
0.006646 
0.010422 
-0.030049 
-0.019282 
-0.248947 
-0.003652 
-0.018121 
-0.015786 
0.023765 
0.023810 
0.015598 
-0.017648 
-0.003984 
0.023012 
-0.018772 
0.030310 
0.028586 
-0.023582 
0.006777 
-0.025819 
-0.001597 
-0.005640 
-0.022509 
-0.014124 
-0.023894 
-0.013231 
-0.356742 
