-0.000416 
0.000037 
0.000455 
0.001242 
0.000182 
0.000204 
0.001971 
-0.000616 
0.001038 
0.000540 
0.001082 
0.001620 
-0.000878 
0.000053 
-0.001599 
-0.001642 
0.000254 
0.001137 
0.001803 
-0.001529 
-0.001506 
0.000953 
0.000717 
-0.000665 
0.000690 
0.000645 
0.001168 
-0.000265 
-0.001700 
-0.000971 
-0.000691 
0.000711 
0.000447 
0.000990 
-0.000674 
-0.001269 
0.000634 
-0.000931 
0.001786 
0.000694 
0.000058 
-0.001814 
-0.001726 
0.000960 
-0.001506 
-0.000918 
-0.001768 
0.001199 
0.001153 
-0.001414 
-0.000550 
-0.001170 
-0.000976 
-0.000676 
-0.000681 
-0.000286 
0.000612 
-0.001496 
-0.000948 
0.000463 
-0.001218 
0.001595 
-0.000715 
-0.000684 
-0.000168 
-0.001635 
-0.000437 
0.001891 
-0.000637 
-0.000549 
-0.000273 
-0.001344 
0.000764 
0.000357 
-0.000764 
0.000701 
0.000762 
-0.000485 
0.001491 
-0.001321 
0.000984 
-0.000953 
0.001860 
-0.001159 
-0.001100 
-0.000149 
0.000957 
-0.001138 
-0.001741 
-0.000849 
0.000469 
-0.000559 
-0.001627 
-0.000826 
0.001944 
-0.001034 
-0.000859 
-0.000559 
0.000391 
-0.000056 
-0.194963 
-0.001922 
0.001363 
0.001644 
-0.000424 
0.000395 
-0.001438 
-0.001465 
0.000784 
-0.000783 
0.000582 
-0.000027 
-0.000207 
0.001616 
0.001192 
0.001421 
0.001136 
-0.001643 
0.001799 
0.001733 
0.000361 
-0.000372 
-0.000297 
-0.001911 
0.000676 
-0.001426 
0.000534 
-0.000418 
-0.001217 
-0.001148 
0.000070 
0.000289 
0.001500 
0.000604 
-0.000569 
-0.001783 
0.000943 
-0.001549 
-0.000953 
0.001512 
-0.001604 
0.001474 
0.001235 
0.000744 
-0.001727 
0.001510 
0.001543 
0.000050 
0.001709 
0.001051 
0.000041 
-0.000509 
0.001126 
-0.000835 
-0.000098 
-0.000276 
-0.001462 
0.001880 
0.001137 
-0.001713 
0.000096 
-0.000778 
-0.000205 
-0.000705 
-0.000794 
0.001050 
-0.001200 
0.000829 
-0.001384 
0.000498 
0.000358 
0.000403 
-0.001526 
-0.000227 
0.000843 
0.000581 
0.001669 
0.001355 
0.001653 
0.001119 
0.001055 
-0.001404 
0.001946 
-0.000397 
-0.000813 
-0.000211 
-0.000346 
0.001823 
0.000986 
0.001923 
-0.001859 
-0.000266 
-0.001478 
0.001589 
-0.001369 
0.001261 
-0.001606 
0.001502 
-0.001645 
0.000810 
0.001795 
0.284141 
0.000496 
0.001868 
-0.000557 
0.001881 
-0.001089 
0.001296 
0.000452 
-0.000595 
0.001187 
0.001861 
0.000813 
-0.001940 
-0.001586 
0.001001 
0.001735 
-0.000194 
0.000717 
-0.001378 
0.001638 
-0.000489 
-0.000029 
-0.001224 
-0.000452 
-0.001290 
-0.001097 
0.001283 
0.001109 
-0.001603 
-0.001132 
-0.000543 
0.001521 
0.001156 
-0.001830 
-0.000385 
-0.000812 
-0.001420 
-0.001933 
0.000874 
-0.000913 
-0.000652 
-0.001279 
0.000462 
0.001119 
0.001479 
-0.000787 
0.000594 
0.000422 
0.000702 
-0.000675 
0.000078 
0.001941 
0.001342 
-0.001457 
-0.001890 
0.000354 
0.000083 
-0.001384 
0.001005 
0.000176 
-0.001337 
0.000346 
-0.001276 
-0.001853 
-0.001863 
0.000657 
0.001874 
0.000218 
0.001522 
0.001213 
0.000493 
0.001777 
-0.001477 
-0.001541 
0.000777 
0.000663 
-0.001844 
0.001680 
-0.000889 
0.000892 
-0.001259 
-0.001292 
-0.000554 
0.001264 
-0.001652 
0.001075 
0.001847 
0.000067 
0.000887 
0.001257 
0.000257 
-0.000304 
0.001630 
0.001155 
-0.000626 
0.000526 
0.001709 
-0.000015 
-0.000650 
0.000851 
0.000402 
-0.167106 
0.000886 
-0.000997 
0.000359 
-0.001892 
0.001436 
0.000622 
0.001015 
-0.001394 
0.000613 
-0.001651 
0.001181 
-0.001176 
0.000806 
-0.000098 
-0.000222 
0.000923 
0.000855 
0.000499 
-0.001714 
0.001029 
-0.001187 
-0.000055 
0.000234 
0.001398 
0.001372 
-0.001358 
0.001772 
-0.000147 
0.000642 
-0.001839 
0.001521 
0.001878 
0.001442 
-0.001150 
0.001571 
0.001386 
0.000753 
0.001365 
-0.000459 
-0.000917 
-0.001501 
0.000511 
-0.000602 
-0.000964 
0.000555 
-0.001758 
-0.001222 
0.001479 
-0.001123 
-0.001930 
0.000471 
-0.001628 
-0.000410 
-0.000476 
-0.001426 
-0.000594 
0.000228 
0.000771 
-0.001114 
-0.001010 
0.000769 
-0.001592 
0.000814 
-0.000858 
0.001273 
0.001330 
0.000370 
-0.001267 
-0.000620 
0.000876 
-0.001306 
-0.000979 
0.001033 
-0.000346 
0.001324 
-0.000647 
0.001450 
0.001944 
-0.000294 
0.001613 
-0.001537 
0.000083 
0.001433 
-0.001097 
-0.000109 
0.000508 
0.001368 
0.000563 
0.000944 
-0.000434 
-0.001542 
0.000648 
0.001622 
0.001162 
0.001535 
-0.001604 
0.000547 
-0.001953 
-0.001969 
-0.000947 
0.241448 
-0.000673 
0.001899 
-0.001947 
0.001386 
-0.000299 
0.000274 
-0.000474 
0.000616 
-0.001580 
0.001311 
-0.000537 
0.000274 
0.001122 
-0.001781 
-0.001940 
-0.000818 
-0.001683 
-0.001100 
-0.000895 
-0.001378 
0.001500 
0.001087 
0.001068 
0.001772 
0.001014 
-0.001051 
0.001119 
-0.000656 
-0.001142 
0.001779 
0.001956 
-0.000430 
0.000473 
0.000954 
0.001676 
-0.000252 
-0.001125 
0.000868 
-0.001572 
-0.001185 
0.001943 
-0.000869 
-0.001129 
0.000782 
0.001780 
-0.001558 
-0.001816 
0.000063 
-0.001906 
-0.000024 
-0.001076 
-0.000550 
0.000434 
0.000566 
0.001227 
0.000092 
-0.000029 
-0.001342 
-0.001369 
0.000164 
-0.001219 
-0.001195 
-0.001896 
0.000283 
0.000670 
-0.000840 
-0.000992 
0.001159 
-0.000590 
-0.001869 
0.000791 
-0.000399 
0.000896 
0.000813 
-0.000848 
-0.001404 
0.000358 
0.001303 
-0.001407 
-0.000625 
0.001348 
-0.000304 
0.001579 
0.001081 
-0.000512 
-0.000370 
0.000022 
-0.001308 
-0.000819 
-0.001936 
0.000238 
0.000038 
-0.000814 
0.000452 
-0.001187 
-0.000217 
-0.001457 
0.000629 
0.000655 
-0.001905 
-0.457989 
-0.000829 
-0.000497 
-0.001676 
-0.000722 
0.001913 
-0.001353 
0.000060 
0.000019 
0.000368 
-0.001289 
-0.001276 
0.001483 
-0.001118 
0.001594 
0.001172 
-0.000033 
0.001535 
0.001450 
0.001839 
0.000023 
-0.001621 
0.001952 
0.001453 
0.000303 
-0.000743 
0.001210 
0.001736 
-0.000564 
0.000307 
-0.001781 
-0.000127 
-0.000777 
-0.000901 
-0.001795 
-0.000390 
0.001215 
0.001875 
-0.000427 
-0.001337 
0.001164 
0.000994 
-0.001974 
0.001250 
-0.000002 
-0.000459 
-0.000114 
0.001497 
0.001830 
-0.001184 
0.001670 
-0.001685 
0.001285 
0.000933 
0.001706 
0.000806 
-0.000693 
-0.000006 
0.000069 
0.000874 
0.000521 
0.001442 
-0.001504 
0.001954 
-0.000687 
0.000898 
0.000848 
0.001097 
-0.000880 
-0.001072 
0.001797 
0.001463 
-0.001645 
-0.000114 
-0.000584 
-0.001022 
-0.001021 
0.001484 
-0.000285 
-0.001407 
0.001667 
0.000673 
0.000091 
-0.000289 
-0.000728 
-0.000619 
0.001030 
-0.000115 
-0.001351 
-0.000078 
0.000614 
0.001804 
0.001820 
0.000944 
0.000864 
0.001870 
-0.001275 
0.000347 
0.001515 
-0.001078 
-0.000320 
0.482473 
0.001267 
-0.000922 
-0.001047 
0.001553 
-0.001084 
0.000487 
-0.000430 
0.001467 
-0.001019 
0.000285 
-0.001728 
0.000827 
0.000424 
-0.001233 
-0.001066 
0.001884 
-0.001662 
0.001807 
-0.000529 
-0.000943 
0.001640 
-0.001473 
0.000805 
-0.001273 
-0.000989 
0.000612 
-0.001902 
-0.000168 
0.000134 
-0.001780 
-0.001596 
0.001372 
-0.001975 
0.001169 
-0.000735 
-0.001633 
-0.001580 
0.000034 
-0.001712 
0.000140 
-0.001227 
0.000194 
0.000163 
0.000967 
-0.001567 
0.001762 
0.000058 
0.000298 
0.000429 
0.000362 
-0.000851 
0.001760 
0.001375 
-0.000521 
-0.001809 
0.001264 
-0.000538 
-0.000182 
0.000862 
-0.000142 
-0.001184 
-0.000705 
-0.000988 
-0.001871 
0.001413 
0.001228 
-0.001124 
0.000738 
-0.001022 
0.001484 
-0.000491 
0.001977 
0.000178 
0.001053 
-0.001230 
0.000833 
0.000676 
0.001310 
-0.000331 
0.000368 
-0.000935 
-0.001393 
-0.000318 
0.001077 
-0.000007 
-0.001718 
0.001274 
0.000061 
0.001029 
-0.000351 
0.001198 
0.000611 
-0.001614 
0.000344 
-0.001117 
-0.001078 
-0.000798 
0.001181 
-0.001323 
0.000931 
0.178889 
0.000578 
-0.000695 
-0.000379 
0.001257 
-0.001245 
0.000449 
-0.000514 
0.000995 
0.000303 
0.000597 
-0.001630 
0.001434 
0.000161 
-0.000652 
-0.000417 
0.000308 
-0.001264 
-0.000715 
-0.001470 
0.001897 
0.001958 
-0.000785 
0.000227 
-0.001819 
-0.001958 
-0.001623 
0.001365 
0.001386 
-0.000759 
0.001155 
-0.000395 
-0.000702 
0.001264 
0.000979 
-0.001095 
0.001046 
0.001090 
0.000478 
-0.000297 
-0.001326 
-0.001736 
-0.000064 
0.000581 
0.000553 
-0.001644 
-0.001787 
-0.001669 
0.000896 
-0.000260 
0.001499 
0.000146 
-0.001053 
0.001759 
0.000135 
0.001594 
0.001376 
0.001504 
0.000527 
-0.001643 
0.001723 
-0.001465 
0.000997 
0.001940 
0.000132 
-0.000659 
-0.000458 
0.001850 
0.001633 
0.000054 
0.001817 
0.000000 
-0.000583 
0.000772 
-0.001650 
-0.001079 
0.001176 
0.001374 
-0.000994 
0.000210 
-0.000275 
0.000986 
-0.001130 
0.000264 
-0.000727 
0.000843 
0.000656 
-0.000024 
0.000377 
0.001888 
-0.000027 
0.001595 
-0.001677 
-0.001949 
0.000007 
0.001641 
0.000813 
-0.001009 
-0.000565 
0.000131 
0.001505 
-0.382715 
0.000791 
0.000787 
-0.001233 
-0.000535 
0.001775 
0.000314 
-0.001557 
0.000807 
0.001859 
-0.000311 
0.000523 
-0.001049 
-0.001313 
-0.001052 
0.001312 
0.000227 
-0.000183 
-0.000108 
-0.000082 
0.000348 
0.001411 
-0.001421 
0.001777 
-0.001528 
0.001719 
-0.001466 
-0.000786 
0.001861 
-0.001904 
0.001753 
-0.000982 
0.001390 
-0.000552 
-0.000374 
-0.000256 
0.001342 
-0.000170 
0.000210 
0.000802 
0.000788 
0.001391 
-0.000762 
-0.000840 
-0.001272 
-0.001304 
0.000112 
-0.001646 
0.001812 
-0.001629 
-0.000020 
-0.001791 
0.001501 
-0.001519 
-0.000686 
-0.000686 
0.000767 
-0.000018 
-0.001448 
-0.000337 
-0.001209 
-0.000682 
0.000563 
-0.000404 
0.000568 
-0.001023 
0.000435 
-0.000109 
-0.001435 
0.000857 
-0.000715 
0.001427 
0.000447 
-0.000936 
-0.001953 
0.000513 
0.000078 
-0.000720 
0.000358 
0.001299 
0.000129 
0.001233 
0.001205 
0.000818 
0.000724 
-0.000939 
0.001461 
-0.001908 
0.001268 
-0.000527 
0.001347 
0.000737 
-0.001485 
-0.000431 
-0.001388 
-0.000872 
0.001417 
-0.000267 
0.000717 
-0.000965 
0.000872 
-0.224804 
-0.000509 
-0.000594 
0.001715 
0.000282 
-0.000855 
0.001761 
0.000435 
-0.000405 
0.000192 
0.001893 
-0.000817 
-0.000269 
-0.001155 
-0.000680 
-0.000970 
0.000810 
0.001247 
-0.000325 
-0.000491 
0.000198 
0.000488 
0.000390 
-0.001183 
-0.000471 
0.000314 
-0.001845 
-0.000524 
0.000900 
-0.000880 
0.001353 
-0.001171 
0.000628 
0.001178 
-0.000345 
-0.000431 
-0.000632 
-0.000143 
-0.001560 
-0.000352 
0.001266 
0.000561 
0.001491 
-0.000914 
0.000291 
-0.001572 
0.001400 
-0.001486 
0.001478 
0.001900 
0.001181 
0.001540 
-0.000958 
-0.001423 
-0.001715 
-0.000983 
0.001587 
0.001565 
0.000115 
0.001735 
-0.001296 
-0.001967 
-0.001089 
-0.001746 
-0.000491 
-0.001806 
-0.001171 
-0.001699 
-0.000827 
0.000831 
-0.001724 
-0.001764 
0.000251 
-0.000818 
-0.001722 
-0.000135 
-0.001474 
-0.000483 
0.000850 
0.000582 
-0.000128 
-0.000143 
-0.001891 
-0.000073 
0.000130 
0.000606 
-0.000842 
0.001535 
0.000931 
-0.001205 
-0.001387 
0.001876 
-0.001516 
-0.000129 
-0.000785 
-0.001669 
0.000802 
0.001020 
0.001356 
-0.001430 
0.001808 
-0.487613 
-0.014047 
0.003894 
0.019097 
0.000587 
0.019663 
0.011215 
-0.002731 
0.006575 
-0.015670 
0.011230 
0.187060 
-0.000813 
0.001673 
0.016089 
-0.014333 
-0.005593 
-0.014653 
0.016980 
-0.005251 
-0.007303 
-0.014491 
0.305946 
0.004753 
-0.011770 
-0.002275 
-0.015835 
-0.001555 
0.004833 
0.004351 
-0.004144 
-0.016710 
0.017042 
-0.363276 
0.017162 
0.011930 
0.004212 
-0.005682 
0.004815 
-0.013837 
-0.018733 
0.008911 
-0.003091 
0.008532 
-0.080711 
-0.019524 
-0.017381 
0.017160 
0.016140 
0.019813 
-0.012822 
-0.019333 
0.012108 
0.014047 
-0.007837 
0.074603 
-0.005772 
-0.005987 
-0.011158 
0.004438 
-0.000934 
0.017259 
0.011616 
0.014163 
-0.014067 
-0.010469 
0.275218 
-0.004393 
-0.003126 
0.005597 
0.003476 
-0.007740 
-0.002678 
-0.009427 
0.005729 
0.014961 
0.010878 
0.086771 
-0.007865 
0.015482 
-0.011321 
0.009941 
-0.016747 
0.006298 
-0.006362 
-0.012407 
0.003086 
0.016943 
0.229845 
-0.008232 
0.007344 
-0.014507 
0.012459 
-0.007292 
0.013762 
-0.008845 
0.019116 
-0.000618 
-0.005972 
0.240232 
-0.014395 
0.003205 
0.005138 
-0.006470 
0.011576 
-0.008181 
0.012294 
0.013697 
0.006408 
0.011941 
0.150060 
