-0.004916 
0.011845 
0.014695 
0.007833 
-0.018118 
-0.002216 
-0.002564 
0.016547 
0.280732 
-0.014346 
-0.013993 
-0.021293 
0.022029 
0.012781 
-0.009263 
0.005852 
-0.018871 
0.022714 
-0.010463 
-0.024697 
-0.000712 
-0.003022 
-0.011546 
0.018703 
0.016322 
-0.013425 
-0.056358 
-0.014540 
0.004069 
0.007497 
-0.013911 
-0.020327 
-0.003890 
0.022855 
0.022069 
-0.089438 
-0.000478 
0.007068 
0.005049 
0.010876 
0.012407 
0.010032 
0.002182 
0.009309 
0.021656 
-0.003340 
-0.009867 
-0.002801 
0.011079 
0.000205 
0.014223 
-0.005363 
-0.018677 
-0.381451 
0.010716 
-0.023944 
0.003071 
-0.002039 
-0.014121 
-0.014291 
-0.020287 
0.017504 
0.048646 
-0.021064 
-0.024561 
-0.021385 
-0.002032 
0.013388 
-0.017640 
-0.014772 
-0.025452 
0.292771 
0.014659 
0.021551 
-0.023146 
-0.016418 
0.013345 
-0.025207 
-0.025240 
0.003766 
0.473753 
0.017159 
0.001503 
-0.004719 
-0.013760 
0.000126 
-0.020948 
-0.019277 
0.004741 
-0.327807 
-0.008755 
0.005777 
0.009529 
0.010787 
0.022211 
-0.010688 
-0.026317 
-0.025355 
0.015555 
0.023098 
-0.223316 
-0.026673 
-0.021977 
0.007186 
0.018152 
-0.034608 
-0.016458 
0.029355 
0.026480 
-0.025736 
0.032294 
-0.012205 
-0.025032 
0.018036 
-0.029739 
-0.008162 
0.032774 
-0.018814 
-0.025327 
-0.024803 
-0.007104 
0.026649 
-0.389657 
-0.025129 
-0.036459 
-0.011859 
0.022711 
0.013467 
-0.017135 
0.017465 
0.004180 
0.034396 
0.019146 
-0.331782 
-0.013170 
0.035805 
0.012647 
-0.006008 
-0.034657 
0.008445 
-0.013998 
-0.024964 
0.020772 
-0.014153 
0.125758 
